elements: [Cu]
E0: [0]
deltaSplineBins: 0.001
embeddings:
  0: {ndensity: 2, FS_parameters: [1, 1, 1, 0.5], npoti: FinnisSinclairShiftedScaled, rho_core_cutoff: 100000, drho_core_cutoff: 250}
bonds:
  [0, 0]: {nradmax: 3, lmax: 2, nradbasemax: 15, radbasename: ChebExpCos, radparameters: [5.25], radcoefficients: [[[-0.36159148368645361, 0.078641462396326314, 0.28541513515636613, 0.53542403922314163, 0.70947737520335308, 0.70966293035527206, 0.52241546961135077, 0.2293836948497609, -0.055073533044564957, -0.25535772753262231, -0.32992384801467745, -0.21852582570876142, 0.10169950778287341, 0.37874634610767177, -0.10258152606511606], [0.33916640837408191, -0.010769813266254586, -0.010956498156325338, 0.068142798873474145, 0.26029849595431731, 0.49176281195236582, 0.58048665072079353, 0.35695818647904298, -0.15052913621261907, -0.638383752113587, -0.71062270968441776, -0.25296342448584075, 0.33685040311914904, 0.38364982383552459, -0.43175205858217169], [0.64855915981194678, -0.16630034463107754, -0.48268882691490611, -0.59051082147601341, -0.32287845477540805, 0.13091024453718184, 0.4241506793169495, 0.39166236281575489, 0.17429908864289756, 0.027510929346839404, 0.054929481122620381, 0.15765567660902163, 0.20750072318098248, 0.16897963812795802, -0.028702421935541973]], [[0.41392139373668868, 1.0054818356197499, -0.022720023546073668, -0.13702135646187574, -0.26494468022320605, -0.2363200858499071, -0.002387015950688002, 0.22442438990146207, 0.17992546597938192, -0.082597525541551559, -0.20622507171458321, -0.033386534807930836, 0.12269980706717827, 0.0023459060857336537, -0.14179251692558684], [0.25565621728133658, 1.0438269700535125, 0.12893257296958563, 0.15036596751899386, 0.037838306918128471, -0.15435170574955759, -0.27012943507566178, -0.20606481217096945, -0.035445960314462996, 0.071552966884756694, 0.050437172232101091, -0.012135652297494526, -0.058640931310521505, -0.12088418134696258, 0.081421123536737514], [-0.12554227509868307, 0.98502495485094665, -0.07365426806432103, -0.18432278997437473, -0.29337593416960595, -0.29070649698369794, -0.10866060440050412, 0.17019503647129, 0.337645726571147, 0.24976469423795258, 0.011045441805905689, -0.089134682865456644, 0.086214947525165841, 0.23463924514896053, -0.21827382435865719]], [[0.077300262017774901, 0.077870758225610556, 1.2128495958397072, 0.22296820631029055, 0.061088348910191735, -0.11475255576049317, -0.12751664549551872, -0.014973963697250887, 0.015187143690383533, -0.10093686803281345, -0.14837014811630464, 0.020551671793757335, 0.11820922775057448, -0.14380499679604719, 0.082903804251639152], [0.10664522788522776, 0.0013401667097695941, 1.0121393110794239, 0.034714268999471443, 0.045350364744752757, 0.016657168606195531, -0.036353276198205157, -0.057766560674159466, -0.016854338887371742, 0.0400709545971316, 0.033746585070924075, -0.043450924906988785, -0.098843448825397473, -0.063343748255954332, -0.055461092656024898], [-0.067240855849438716, 0.014763626651249303, 1.0359714949843344, 0.023934224279961485, -0.026863712694963234, -0.079655438694375261, -0.097888979351004171, -0.07991838677280326, -0.04274806707715912, 0.008910221177737862, 0.06811136293660397, 0.082684995819067825, -0.011326493038505744, -0.12973978627436639, 0.093003849109539266]]], prehc: 0, lambdahc: 0, rcut: 7, dcut: 0.01, rcut_in: 0, dcut_in: 0, inner_cutoff_type: distance}
functions:
  0:
    - {mu0: 0, rank: 1, ndensity: 2, num_ms_combs: 1, mus: [0], ns: [1], ls: [0], ms_combs: [0], ctildes: [0.080581077454784683, -0.20994653592739237]}
    - {mu0: 0, rank: 1, ndensity: 2, num_ms_combs: 1, mus: [0], ns: [2], ls: [0], ms_combs: [0], ctildes: [5.571951411430331, -2.5640128743354711]}
    - {mu0: 0, rank: 1, ndensity: 2, num_ms_combs: 1, mus: [0], ns: [3], ls: [0], ms_combs: [0], ctildes: [10.810856052841551, -6.6622597129471126]}
    - {mu0: 0, rank: 1, ndensity: 2, num_ms_combs: 1, mus: [0], ns: [4], ls: [0], ms_combs: [0], ctildes: [1.365203188671233, -4.2558101421080501]}
    - {mu0: 0, rank: 1, ndensity: 2, num_ms_combs: 1, mus: [0], ns: [5], ls: [0], ms_combs: [0], ctildes: [-8.6178741368570382, 2.1408571877115254]}
    - {mu0: 0, rank: 1, ndensity: 2, num_ms_combs: 1, mus: [0], ns: [6], ls: [0], ms_combs: [0], ctildes: [-3.1946817780391812, 4.9271879135126158]}
    - {mu0: 0, rank: 1, ndensity: 2, num_ms_combs: 1, mus: [0], ns: [7], ls: [0], ms_combs: [0], ctildes: [6.751421474305336, -0.3828426000680219]}
    - {mu0: 0, rank: 1, ndensity: 2, num_ms_combs: 1, mus: [0], ns: [8], ls: [0], ms_combs: [0], ctildes: [3.031144813228642, -4.3306397699049821]}
    - {mu0: 0, rank: 1, ndensity: 2, num_ms_combs: 1, mus: [0], ns: [9], ls: [0], ms_combs: [0], ctildes: [-5.4885346248361158, -0.76937386720588208]}
    - {mu0: 0, rank: 1, ndensity: 2, num_ms_combs: 1, mus: [0], ns: [10], ls: [0], ms_combs: [0], ctildes: [-1.2963843922527782, 3.9553412960089278]}
    - {mu0: 0, rank: 1, ndensity: 2, num_ms_combs: 1, mus: [0], ns: [11], ls: [0], ms_combs: [0], ctildes: [4.2455942642467663, 0.98804953581120503]}
    - {mu0: 0, rank: 1, ndensity: 2, num_ms_combs: 1, mus: [0], ns: [12], ls: [0], ms_combs: [0], ctildes: [-1.7640751845961031, -3.5408098164589266]}
    - {mu0: 0, rank: 1, ndensity: 2, num_ms_combs: 1, mus: [0], ns: [13], ls: [0], ms_combs: [0], ctildes: [-0.42277079551638697, 0.76882605341477772]}
    - {mu0: 0, rank: 1, ndensity: 2, num_ms_combs: 1, mus: [0], ns: [14], ls: [0], ms_combs: [0], ctildes: [0.45278705132273306, 1.3588030919277321]}
    - {mu0: 0, rank: 1, ndensity: 2, num_ms_combs: 1, mus: [0], ns: [15], ls: [0], ms_combs: [0], ctildes: [-0.089117959711254593, -0.69248902574255333]}
    - {mu0: 0, rank: 2, ndensity: 2, num_ms_combs: 1, mus: [0, 0], ns: [1, 1], ls: [0, 0], ms_combs: [0, 0], ctildes: [-0.004278660975512434, 0.072127044153185868]}
    - {mu0: 0, rank: 2, ndensity: 2, num_ms_combs: 2, mus: [0, 0], ns: [1, 1], ls: [1, 1], ms_combs: [0, 0, 1, -1], ctildes: [0.0015653877414035042, 0.0066984085890419934, -0.0031307754828070076, -0.013396817178083983]}
    - {mu0: 0, rank: 2, ndensity: 2, num_ms_combs: 3, mus: [0, 0], ns: [1, 1], ls: [2, 2], ms_combs: [0, 0, 1, -1, 2, -2], ctildes: [-0.0002438548771770698, -0.0017340441671098263, 0.00048770975435413961, 0.0034680883342196526, -0.00048770975435413982, -0.0034680883342196539]}
    - {mu0: 0, rank: 2, ndensity: 2, num_ms_combs: 1, mus: [0, 0], ns: [1, 2], ls: [0, 0], ms_combs: [0, 0], ctildes: [0.017655269582564519, -0.22698960981654853]}
    - {mu0: 0, rank: 2, ndensity: 2, num_ms_combs: 2, mus: [0, 0], ns: [1, 2], ls: [1, 1], ms_combs: [0, 0, 1, -1], ctildes: [0.018848570484813251, 0.032345969911699544, -0.037697140969626494, -0.064691939823399075]}
    - {mu0: 0, rank: 2, ndensity: 2, num_ms_combs: 3, mus: [0, 0], ns: [1, 2], ls: [2, 2], ms_combs: [0, 0, 1, -1, 2, -2], ctildes: [-0.000817553988652875, -0.0064579920770033595, 0.00163510797730575, 0.012915984154006719, -0.0016351079773057507, -0.012915984154006722]}
    - {mu0: 0, rank: 2, ndensity: 2, num_ms_combs: 1, mus: [0, 0], ns: [1, 3], ls: [0, 0], ms_combs: [0, 0], ctildes: [0.025669222072918916, -0.48779465045766024]}
    - {mu0: 0, rank: 2, ndensity: 2, num_ms_combs: 2, mus: [0, 0], ns: [1, 3], ls: [1, 1], ms_combs: [0, 0, 1, -1], ctildes: [-0.015516782149700717, 0.19084378835901808, 0.031033564299401427, -0.38168757671803605]}
    - {mu0: 0, rank: 2, ndensity: 2, num_ms_combs: 3, mus: [0, 0], ns: [1, 3], ls: [2, 2], ms_combs: [0, 0, 1, -1, 2, -2], ctildes: [0.0089289662086907435, -0.16007410916848092, -0.017857932417381487, 0.32014821833696183, 0.017857932417381494, -0.32014821833696194]}
    - {mu0: 0, rank: 2, ndensity: 2, num_ms_combs: 1, mus: [0, 0], ns: [2, 2], ls: [0, 0], ms_combs: [0, 0], ctildes: [-0.035758821564806496, 0.60688448607253132]}
    - {mu0: 0, rank: 2, ndensity: 2, num_ms_combs: 2, mus: [0, 0], ns: [2, 2], ls: [1, 1], ms_combs: [0, 0, 1, -1], ctildes: [0.054846211345903124, 0.21509955959948762, -0.10969242269180622, -0.43019911919897513]}
    - {mu0: 0, rank: 2, ndensity: 2, num_ms_combs: 3, mus: [0, 0], ns: [2, 2], ls: [2, 2], ms_combs: [0, 0, 1, -1, 2, -2], ctildes: [0.0082416596481816404, -0.04406604334310437, -0.016483319296363281, 0.088132086686208741, 0.016483319296363288, -0.088132086686208769]}
    - {mu0: 0, rank: 2, ndensity: 2, num_ms_combs: 1, mus: [0, 0], ns: [2, 3], ls: [0, 0], ms_combs: [0, 0], ctildes: [-0.052466124732733418, 0.27807987099147863]}
    - {mu0: 0, rank: 2, ndensity: 2, num_ms_combs: 2, mus: [0, 0], ns: [2, 3], ls: [1, 1], ms_combs: [0, 0, 1, -1], ctildes: [-0.022728206651767977, -0.14930952148678284, 0.045456413303535947, 0.29861904297356562]}
    - {mu0: 0, rank: 2, ndensity: 2, num_ms_combs: 3, mus: [0, 0], ns: [2, 3], ls: [2, 2], ms_combs: [0, 0, 1, -1, 2, -2], ctildes: [-0.010127085802169204, 0.13134731459845905, 0.020254171604338407, -0.26269462919691811, -0.020254171604338414, 0.26269462919691816]}
    - {mu0: 0, rank: 2, ndensity: 2, num_ms_combs: 1, mus: [0, 0], ns: [3, 3], ls: [0, 0], ms_combs: [0, 0], ctildes: [0, 0]}
    - {mu0: 0, rank: 2, ndensity: 2, num_ms_combs: 2, mus: [0, 0], ns: [3, 3], ls: [1, 1], ms_combs: [0, 0, 1, -1], ctildes: [0, 0, 0, 0]}
    - {mu0: 0, rank: 2, ndensity: 2, num_ms_combs: 3, mus: [0, 0], ns: [3, 3], ls: [2, 2], ms_combs: [0, 0, 1, -1, 2, -2], ctildes: [0, 0, 0, 0, 0, 0]}
    - {mu0: 0, rank: 3, ndensity: 2, num_ms_combs: 1, mus: [0, 0, 0], ns: [1, 1, 1], ls: [0, 0, 0], ms_combs: [0, 0, 0], ctildes: [0, 0]}
    - {mu0: 0, rank: 3, ndensity: 2, num_ms_combs: 2, mus: [0, 0, 0], ns: [1, 1, 1], ls: [0, 1, 1], ms_combs: [0, 0, 0, 0, 1, -1], ctildes: [0, 0, 0, 0]}
    - {mu0: 0, rank: 3, ndensity: 2, num_ms_combs: 3, mus: [0, 0, 0], ns: [1, 1, 1], ls: [0, 2, 2], ms_combs: [0, 0, 0, 0, 1, -1, 0, 2, -2], ctildes: [0, 0, 0, 0, 0, 0]}
    - {mu0: 0, rank: 3, ndensity: 2, num_ms_combs: 4, mus: [0, 0, 0], ns: [1, 1, 1], ls: [1, 1, 2], ms_combs: [-1, 1, 0, 0, 0, 0, 0, 1, -1, 1, 1, -2], ctildes: [0, 0, 0, 0, 0, 0, 0, 0]}
    - {mu0: 0, rank: 3, ndensity: 2, num_ms_combs: 5, mus: [0, 0, 0], ns: [1, 1, 1], ls: [2, 2, 2], ms_combs: [-2, 0, 2, -2, 1, 1, -1, -1, 2, -1, 0, 1, 0, 0, 0], ctildes: [0, 0, 0, 0, 0, 0, 0, 0, 0, 0]}
    - {mu0: 0, rank: 3, ndensity: 2, num_ms_combs: 1, mus: [0, 0, 0], ns: [1, 1, 2], ls: [0, 0, 0], ms_combs: [0, 0, 0], ctildes: [0, 0]}
    - {mu0: 0, rank: 3, ndensity: 2, num_ms_combs: 2, mus: [0, 0, 0], ns: [1, 1, 2], ls: [0, 1, 1], ms_combs: [0, 0, 0, 0, 1, -1], ctildes: [0, 0, 0, 0]}
    - {mu0: 0, rank: 3, ndensity: 2, num_ms_combs: 3, mus: [0, 0, 0], ns: [1, 1, 2], ls: [0, 2, 2], ms_combs: [0, 0, 0, 0, 1, -1, 0, 2, -2], ctildes: [0, 0, 0, 0, 0, 0]}
    - {mu0: 0, rank: 3, ndensity: 2, num_ms_combs: 2, mus: [0, 0, 0], ns: [1, 1, 2], ls: [1, 1, 0], ms_combs: [0, 0, 0, 1, -1, 0], ctildes: [0, 0, 0, 0]}
    - {mu0: 0, rank: 3, ndensity: 2, num_ms_combs: 4, mus: [0, 0, 0], ns: [1, 1, 2], ls: [1, 1, 2], ms_combs: [-1, 1, 0, 0, 0, 0, 0, 1, -1, 1, 1, -2], ctildes: [0, 0, 0, 0, 0, 0, 0, 0]}
    - {mu0: 0, rank: 3, ndensity: 2, num_ms_combs: 5, mus: [0, 0, 0], ns: [1, 1, 2], ls: [1, 2, 1], ms_combs: [0, 0, 0, 0, 1, -1, 1, -2, 1, 1, -1, 0, 1, 0, -1], ctildes: [0, 0, 0, 0, 0, 0, 0, 0, 0, 0]}
    - {mu0: 0, rank: 3, ndensity: 2, num_ms_combs: 3, mus: [0, 0, 0], ns: [1, 1, 2], ls: [2, 2, 0], ms_combs: [0, 0, 0, 1, -1, 0, 2, -2, 0], ctildes: [0, 0, 0, 0, 0, 0]}
