elements: [Cu]
E0: [0]
deltaSplineBins: 0.001
embeddings:
  0: {ndensity: 2, FS_parameters: [1, 1, 1, 0.5], npoti: FinnisSinclairShiftedScaled, rho_core_cutoff: 100000, drho_core_cutoff: 250}
bonds:
  [0, 0]: {nradmax: 3, lmax: 2, nradbasemax: 15, radbasename: ChebExpCos, radparameters: [5.25], radcoefficients: [[[1.0202257072667196, 0.014293332380224264, 0.049825428401819694, 0.087387960877863338, 0.10821367056100625, 0.10931184752528926, 0.10418366966044525, 0.10806093121619779, 0.11461615725522649, 0.099826723417528823, 0.059094581637949915, 0.022933119332406132, 0.035261368818323056, 0.043481244841240961, -0.24001250823964038], [0.95225994305663653, 0.025905659385802852, 0.07788023269904526, 0.098562360872185881, 0.047384660535314295, -0.060173358132902172, -0.15934684742221747, -0.18285129049711682, -0.1186314567246341, -0.022418131334920585, 0.031736868894708802, 0.0074126816793413557, -0.051139414741934862, -0.049460660259165852, 0.00069742663777168379], [0.93950132430514155, 0.012304509168765904, 0.039247539689028811, 0.057422808040164829, 0.044670595030118908, -0.0044369662179633493, -0.074021593781970985, -0.13452114894503453, -0.15734331599587698, -0.12327800492169388, -0.028332200102620168, 0.093918383919493933, 0.18504895339019947, 0.17462675094243307, -0.14356066178587751]], [[-0.2340093323752527, 0.97842933940392895, -0.045319587639596697, -0.0054503715074707788, 0.089304714106913929, 0.14066039814538456, 0.061566154584432126, -0.10546338540267428, -0.19842995164225052, -0.10135238698699124, 0.099249995615761463, 0.16220690762678208, -0.046547559768330332, -0.32286910321521933, 0.062543600267495753], [0.051413974013244435, 1.0505749764507948, 0.1524785170537398, 0.19848151162001462, 0.12218057209303525, -0.033414641160632086, -0.14919098751936399, -0.13563946822730069, -0.018639582875086314, 0.08510161137905424, 0.08454263696415644, -0.0032612488930715104, -0.063101528949755653, -0.023956292813654797, -0.10382162637357598], [-0.065339864402603379, 1.0110998526521695, 0.034291258047850694, 0.047430154287746086, 0.036511082286812206, 0.011202140493746045, -0.0051164791731454469, -0.0012412289266631059, 0.0089339322213166979, 0.0045106381940248534, -0.0092210681928554042, 0.0025023915161495507, 0.071604047000897147, 0.13767367202033656, -0.15796537950341263]], [[0.25890591173431726, 0.010639461063826419, 1.0247682755945324, 0.011445662426710196, -0.035852689207313188, -0.083850849112813777, -0.08543173242257146, -0.026817310177266702, 0.057686644332119216, 0.11661048757478513, 0.11205407911182917, 0.029287534609647493, -0.100130236358452, -0.18585290453676084, -0.16428264146322558], [0.0069868098078686271, 0.042353005948623901, 1.1215417500204377, 0.1415912883945826, 0.053493594118445974, -0.0880889556458965, -0.16685572287213518, -0.11815109981864827, 0.002860436559144466, 0.075722648645802748, 0.042860889842311074, -0.024545562779252753, -0.0002716408672795325, 0.14204577901652296, 0.10160617459783079], [0.0086803230982849741, 0.0017941449618323277, 1.0000658868640813, -0.018951394445384791, -0.061469556682857973, -0.11716781258213753, -0.16480113165117366, -0.18558491943192498, -0.17626609786331934, -0.1459539929562978, -0.10248520563817015, -0.059783027232701937, -0.037007309669086268, -0.080208029782532789, -0.34766366039706859]]], prehc: 0, lambdahc: 0, rcut: 7, dcut: 0.01, rcut_in: 0, dcut_in: 0, inner_cutoff_type: distance}
functions:
  0:
    - {mu0: 0, rank: 1, ndensity: 2, num_ms_combs: 1, mus: [0], ns: [1], ls: [0], ms_combs: [0], ctildes: [0.32940209836702916, -0.20142750711345112]}
    - {mu0: 0, rank: 1, ndensity: 2, num_ms_combs: 1, mus: [0], ns: [2], ls: [0], ms_combs: [0], ctildes: [0.39553382053681047, 0.00111535655387447]}
    - {mu0: 0, rank: 1, ndensity: 2, num_ms_combs: 1, mus: [0], ns: [3], ls: [0], ms_combs: [0], ctildes: [1.1925318818371353, 9.8504168191831438e-05]}
    - {mu0: 0, rank: 1, ndensity: 2, num_ms_combs: 1, mus: [0], ns: [4], ls: [0], ms_combs: [0], ctildes: [1.1275302072404194, 0.0081969458283714259]}
    - {mu0: 0, rank: 1, ndensity: 2, num_ms_combs: 1, mus: [0], ns: [5], ls: [0], ms_combs: [0], ctildes: [-0.014446089080565773, -0.0088197547863732313]}
    - {mu0: 0, rank: 1, ndensity: 2, num_ms_combs: 1, mus: [0], ns: [6], ls: [0], ms_combs: [0], ctildes: [-0.98290848790451946, -0.040092389742342062]}
    - {mu0: 0, rank: 1, ndensity: 2, num_ms_combs: 1, mus: [0], ns: [7], ls: [0], ms_combs: [0], ctildes: [-0.97196773837658024, 0.016420889947378711]}
    - {mu0: 0, rank: 1, ndensity: 2, num_ms_combs: 1, mus: [0], ns: [8], ls: [0], ms_combs: [0], ctildes: [-0.043187697706640001, 0.15619821732467126]}
    - {mu0: 0, rank: 1, ndensity: 2, num_ms_combs: 1, mus: [0], ns: [9], ls: [0], ms_combs: [0], ctildes: [0.43297664383852397, 0.03210686055528135]}
    - {mu0: 0, rank: 1, ndensity: 2, num_ms_combs: 1, mus: [0], ns: [10], ls: [0], ms_combs: [0], ctildes: [0.0096673841732270813, -0.28332543447104086]}
    - {mu0: 0, rank: 1, ndensity: 2, num_ms_combs: 1, mus: [0], ns: [11], ls: [0], ms_combs: [0], ctildes: [-0.34007188749696132, -0.55862380121994815]}
    - {mu0: 0, rank: 1, ndensity: 2, num_ms_combs: 1, mus: [0], ns: [12], ls: [0], ms_combs: [0], ctildes: [0.088971630482662156, -0.28299535058868297]}
    - {mu0: 0, rank: 1, ndensity: 2, num_ms_combs: 1, mus: [0], ns: [13], ls: [0], ms_combs: [0], ctildes: [0.65025133214734365, 0.19519330937904178]}
    - {mu0: 0, rank: 1, ndensity: 2, num_ms_combs: 1, mus: [0], ns: [14], ls: [0], ms_combs: [0], ctildes: [-0.48285873013777225, 0.42828967221954906]}
    - {mu0: 0, rank: 1, ndensity: 2, num_ms_combs: 1, mus: [0], ns: [15], ls: [0], ms_combs: [0], ctildes: [0.34335781056068199, 0.0020480954166458743]}
    - {mu0: 0, rank: 2, ndensity: 2, num_ms_combs: 1, mus: [0, 0], ns: [1, 1], ls: [0, 0], ms_combs: [0, 0], ctildes: [-0.040084470771446057, -0.064981753744638118]}
    - {mu0: 0, rank: 2, ndensity: 2, num_ms_combs: 2, mus: [0, 0], ns: [1, 1], ls: [1, 1], ms_combs: [0, 0, 1, -1], ctildes: [0.0010058623954013663, -0.012002506816313638, -0.0020117247908027322, 0.024005013632627269]}
    - {mu0: 0, rank: 2, ndensity: 2, num_ms_combs: 3, mus: [0, 0], ns: [1, 1], ls: [2, 2], ms_combs: [0, 0, 1, -1, 2, -2], ctildes: [0.0095331172973995744, -3.1199963759320732e-05, -0.019066234594799149, 6.2399927518641464e-05, 0.019066234594799156, -6.2399927518641492e-05]}
    - {mu0: 0, rank: 2, ndensity: 2, num_ms_combs: 1, mus: [0, 0], ns: [1, 2], ls: [0, 0], ms_combs: [0, 0], ctildes: [-0.025994626738212817, 0.023256577047025405]}
    - {mu0: 0, rank: 2, ndensity: 2, num_ms_combs: 2, mus: [0, 0], ns: [1, 2], ls: [1, 1], ms_combs: [0, 0, 1, -1], ctildes: [-0.00072795823386247074, -0.020355070001102253, 0.0014559164677249411, 0.040710140002204499]}
    - {mu0: 0, rank: 2, ndensity: 2, num_ms_combs: 3, mus: [0, 0], ns: [1, 2], ls: [2, 2], ms_combs: [0, 0, 1, -1, 2, -2], ctildes: [0.0072840777933440657, 0.00025205441828408915, -0.014568155586688131, -0.0005041088365681783, 0.014568155586688137, 0.00050410883656817841]}
    - {mu0: 0, rank: 2, ndensity: 2, num_ms_combs: 1, mus: [0, 0], ns: [1, 3], ls: [0, 0], ms_combs: [0, 0], ctildes: [0.10105694439891914, -0.3235465119003067]}
    - {mu0: 0, rank: 2, ndensity: 2, num_ms_combs: 2, mus: [0, 0], ns: [1, 3], ls: [1, 1], ms_combs: [0, 0, 1, -1], ctildes: [-0.16614756898026339, -0.053203896924518497, 0.33229513796052673, 0.10640779384903697]}
    - {mu0: 0, rank: 2, ndensity: 2, num_ms_combs: 3, mus: [0, 0], ns: [1, 3], ls: [2, 2], ms_combs: [0, 0, 1, -1, 2, -2], ctildes: [-0.074500636929511074, -0.028442496228953826, 0.14900127385902215, 0.056884992457907652, -0.1490012738590222, -0.056884992457907672]}
    - {mu0: 0, rank: 2, ndensity: 2, num_ms_combs: 1, mus: [0, 0], ns: [2, 2], ls: [0, 0], ms_combs: [0, 0], ctildes: [0.036968629596271924, 0.16833077841536329]}
    - {mu0: 0, rank: 2, ndensity: 2, num_ms_combs: 2, mus: [0, 0], ns: [2, 2], ls: [1, 1], ms_combs: [0, 0, 1, -1], ctildes: [-0.038669042640413286, -0.035190325584453418, 0.077338085280826557, 0.070380651168906821]}
    - {mu0: 0, rank: 2, ndensity: 2, num_ms_combs: 3, mus: [0, 0], ns: [2, 2], ls: [2, 2], ms_combs: [0, 0, 1, -1, 2, -2], ctildes: [-0.0022145719011573287, 0.0010476330253871293, 0.0044291438023146574, -0.0020952660507742586, -0.0044291438023146591, 0.0020952660507742595]}
    - {mu0: 0, rank: 2, ndensity: 2, num_ms_combs: 1, mus: [0, 0], ns: [2, 3], ls: [0, 0], ms_combs: [0, 0], ctildes: [-0.1674536456305267, 0.1613641393829022]}
    - {mu0: 0, rank: 2, ndensity: 2, num_ms_combs: 2, mus: [0, 0], ns: [2, 3], ls: [1, 1], ms_combs: [0, 0, 1, -1], ctildes: [-0.14422607377422719, -0.060241174243487045, 0.28845214754845433, 0.12048234848697406]}
    - {mu0: 0, rank: 2, ndensity: 2, num_ms_combs: 3, mus: [0, 0], ns: [2, 3], ls: [2, 2], ms_combs: [0, 0, 1, -1, 2, -2], ctildes: [-0.061033765477744424, 0.0019446905299036886, 0.12206753095548885, -0.0038893810598073773, -0.12206753095548889, 0.003889381059807379]}
    - {mu0: 0, rank: 2, ndensity: 2, num_ms_combs: 1, mus: [0, 0], ns: [3, 3], ls: [0, 0], ms_combs: [0, 0], ctildes: [-0.11776582372403838, -0.033136973362669693]}
    - {mu0: 0, rank: 2, ndensity: 2, num_ms_combs: 2, mus: [0, 0], ns: [3, 3], ls: [1, 1], ms_combs: [0, 0, 1, -1], ctildes: [-0.096658092933185863, 0.00032718038027755223, 0.19331618586637167, -0.00065436076055510424]}
    - {mu0: 0, rank: 2, ndensity: 2, num_ms_combs: 3, mus: [0, 0], ns: [3, 3], ls: [2, 2], ms_combs: [0, 0, 1, -1, 2, -2], ctildes: [0.00050597034789749999, -0.010595114630704179, -0.001011940695795, 0.021190229261408358, 0.0010119406957950002, -0.021190229261408365]}
    - {mu0: 0, rank: 3, ndensity: 2, num_ms_combs: 1, mus: [0, 0, 0], ns: [1, 1, 1], ls: [0, 0, 0], ms_combs: [0, 0, 0], ctildes: [-0.00013138553213086054, 0.010209460761341131]}
    - {mu0: 0, rank: 3, ndensity: 2, num_ms_combs: 2, mus: [0, 0, 0], ns: [1, 1, 1], ls: [0, 1, 1], ms_combs: [0, 0, 0, 0, 1, -1], ctildes: [-3.2469076645862166e-05, 0.013934345770802653, 6.4938153291724319e-05, -0.0278686915416053]}
    - {mu0: 0, rank: 3, ndensity: 2, num_ms_combs: 3, mus: [0, 0, 0], ns: [1, 1, 1], ls: [0, 2, 2], ms_combs: [0, 0, 0, 0, 1, -1, 0, 2, -2], ctildes: [-0.0029175350065710746, 0.041945108319088709, 0.0058350700131421492, -0.083890216638177417, -0.0058350700131421518, 0.083890216638177459]}
    - {mu0: 0, rank: 3, ndensity: 2, num_ms_combs: 4, mus: [0, 0, 0], ns: [1, 1, 1], ls: [1, 1, 2], ms_combs: [-1, 1, 0, 0, 0, 0, 0, 1, -1, 1, 1, -2], ctildes: [0.02903791169270865, 1.0134026501477289e-05, 0.029037911692708647, 1.0134026501477287e-05, -0.10059027679493952, -3.5105297571616284e-05, 0.071128066843133567, 2.4823193968461521e-05]}
    - {mu0: 0, rank: 3, ndensity: 2, num_ms_combs: 5, mus: [0, 0, 0], ns: [1, 1, 1], ls: [2, 2, 2], ms_combs: [-2, 0, 2, -2, 1, 1, -1, -1, 2, -1, 0, 1, 0, 0, 0], ctildes: [0.18328882229475044, 0.0002854647383352035, -0.14965469672593323, -0.00023308098282612152, -0.074827348362966603, -0.00011654049141306075, 0.091644411147375177, 0.00014273236916760167, -0.030548137049125061, -4.7577456389200563e-05]}
    - {mu0: 0, rank: 3, ndensity: 2, num_ms_combs: 1, mus: [0, 0, 0], ns: [1, 1, 2], ls: [0, 0, 0], ms_combs: [0, 0, 0], ctildes: [-0.0038078996552232585, -0.0004782028412662562]}
    - {mu0: 0, rank: 3, ndensity: 2, num_ms_combs: 2, mus: [0, 0, 0], ns: [1, 1, 2], ls: [0, 1, 1], ms_combs: [0, 0, 0, 0, 1, -1], ctildes: [0.0040405075651545434, -0.0050107518007280714, -0.0080810151303090851, 0.010021503601456141]}
    - {mu0: 0, rank: 3, ndensity: 2, num_ms_combs: 3, mus: [0, 0, 0], ns: [1, 1, 2], ls: [0, 2, 2], ms_combs: [0, 0, 0, 0, 1, -1, 0, 2, -2], ctildes: [0.0077915220758001946, -0.032297915778391105, -0.015583044151600389, 0.06459583155678221, 0.015583044151600396, -0.064595831556782238]}
    - {mu0: 0, rank: 3, ndensity: 2, num_ms_combs: 2, mus: [0, 0, 0], ns: [1, 1, 2], ls: [1, 1, 0], ms_combs: [0, 0, 0, 1, -1, 0], ctildes: [-0.008772679277817946, 0.00043732628984288405, 0.017545358555635888, -0.00087465257968576788]}
    - {mu0: 0, rank: 3, ndensity: 2, num_ms_combs: 4, mus: [0, 0, 0], ns: [1, 1, 2], ls: [1, 1, 2], ms_combs: [-1, 1, 0, 0, 0, 0, 0, 1, -1, 1, 1, -2], ctildes: [-0.0094990901171097993, 4.5313124664592454e-06, -0.0094990901171097993, 4.5313124664592446e-06, 0.03290581341701914, -1.5696926833755313e-05, -0.023267923807633518, 1.1099403407937468e-05]}
    - {mu0: 0, rank: 3, ndensity: 2, num_ms_combs: 5, mus: [0, 0, 0], ns: [1, 1, 2], ls: [1, 2, 1], ms_combs: [0, 0, 0, 0, 1, -1, 1, -2, 1, 1, -1, 0, 1, 0, -1], ctildes: [0.053686253649519927, -0.0016035396078285015, -0.092987318988998577, 0.002777412072708037, 0.13150392764295499, -0.0039278538215224736, -0.092987318988998577, 0.002777412072708037, 0.05368625364951992, -0.0016035396078285013]}
    - {mu0: 0, rank: 3, ndensity: 2, num_ms_combs: 3, mus: [0, 0, 0], ns: [1, 1, 2], ls: [2, 2, 0], ms_combs: [0, 0, 0, 1, -1, 0, 2, -2, 0], ctildes: [0.018194058877931081, 0.0057049208007870847, -0.036388117755862162, -0.011409841601574169, 0.036388117755862176, 0.011409841601574173]}
    - {mu0: 0, rank: 3, ndensity: 2, num_ms_combs: 8, mus: [0, 0, 0], ns: [1, 1, 2], ls: [2, 2, 2], ms_combs: [-2, 1, 1, -2, 2, 0, -1, 1, 0, -1, 2, -1, 0, 0, 0, 0, 1, -1, 0, 2, -2, 1, 1, -2], ctildes: [0.0065385687580170283, -1.0785331329466914e-05, -0.0053387190350817522, 8.8061861546824214e-06, -0.0026693595175408757, 4.4030930773412099e-06, 0.0065385687580170283, -1.0785331329466914e-05, 0.0026693595175408761, -4.4030930773412107e-06, -0.0053387190350817513, 8.8061861546824197e-06, -0.010677438070163511, 1.7612372309364853e-05, 0.0065385687580170309, -1.0785331329466917e-05]}
    - {mu0: 0, rank: 3, ndensity: 2, num_ms_combs: 1, mus: [0, 0, 0], ns: [1, 2, 2], ls: [0, 0, 0], ms_combs: [0, 0, 0], ctildes: [-0.010510254350770357, -0.0080275931165890626]}
    - {mu0: 0, rank: 3, ndensity: 2, num_ms_combs: 2, mus: [0, 0, 0], ns: [1, 2, 2], ls: [0, 1, 1], ms_combs: [0, 0, 0, 0, 1, -1], ctildes: [-0.0037846006263141103, -0.012497588009418394, 0.0075692012526282198, 0.024995176018836784]}
    - {mu0: 0, rank: 3, ndensity: 2, num_ms_combs: 3, mus: [0, 0, 0], ns: [1, 2, 2], ls: [0, 2, 2], ms_combs: [0, 0, 0, 0, 1, -1, 0, 2, -2], ctildes: [0.0011502623181961747, -0.0021384061433022653, -0.0023005246363923494, 0.0042768122866045305, 0.0023005246363923502, -0.0042768122866045314]}
    - {mu0: 0, rank: 3, ndensity: 2, num_ms_combs: 2, mus: [0, 0, 0], ns: [1, 2, 2], ls: [1, 0, 1], ms_combs: [0, 0, 0, 1, 0, -1], ctildes: [0.00017770588075563624, 2.2556029503103786e-05, -0.00035541176151127236, -4.5112059006207565e-05]}
    - {mu0: 0, rank: 3, ndensity: 2, num_ms_combs: 5, mus: [0, 0, 0], ns: [1, 2, 2], ls: [1, 1, 2], ms_combs: [0, 0, 0, 0, 1, -1, 1, -1, 0, 1, 0, -1, 1, 1, -2], ctildes: [-0.0043760036032747399, -0.00038954501028722283, 0.0075794605749763301, 0.00067471174965241104, -0.0043760036032747399, -0.00038954501028722294, 0.0075794605749763301, 0.00067471174965241104, -0.010718975940603706, -0.00095418650705092034]}
    - {mu0: 0, rank: 3, ndensity: 2, num_ms_combs: 3, mus: [0, 0, 0], ns: [1, 2, 2], ls: [2, 0, 2], ms_combs: [0, 0, 0, 1, 0, -1, 2, 0, -2], ctildes: [-0.0042509530391994154, -2.8123037063964868e-05, 0.0085019060783988309, 5.6246074127929736e-05, -0.0085019060783988343, -5.6246074127929757e-05]}
    - {mu0: 0, rank: 3, ndensity: 2, num_ms_combs: 4, mus: [0, 0, 0], ns: [1, 2, 2], ls: [2, 1, 1], ms_combs: [0, -1, 1, 0, 0, 0, 1, -1, 0, 2, -1, -1], ctildes: [0.00031190426950537245, 2.4112354118608788e-05, 0.0003119042695053725, 2.4112354118608794e-05, -0.0010804680837619223, -8.3527644847046219e-05, 0.0007640063088836898, 5.9062964087887944e-05]}
    - {mu0: 0, rank: 3, ndensity: 2, num_ms_combs: 7, mus: [0, 0, 0], ns: [1, 2, 2], ls: [2, 2, 2], ms_combs: [0, -2, 2, 0, -1, 1, 0, 0, 0, 1, -2, 1, 1, -1, 0, 2, -2, 0, 2, -1, -1], ctildes: [-0.0069364719221456112, -0.00014300143063527445, -0.003468235961072803, -7.1500715317637171e-05, 0.0034682359610728034, 7.1500715317637185e-05, 0.01699081682439918, 0.00035028053754442473, -0.006936471922145606, -0.00014300143063527434, -0.013872943844291217, -0.00028600286127054879, 0.0084954084121995881, 0.00017514026877221231]}
    - {mu0: 0, rank: 3, ndensity: 2, num_ms_combs: 1, mus: [0, 0, 0], ns: [2, 2, 2], ls: [0, 0, 0], ms_combs: [0, 0, 0], ctildes: [-0.020016758050520868, 0.0091270063711782305]}
    - {mu0: 0, rank: 3, ndensity: 2, num_ms_combs: 2, mus: [0, 0, 0], ns: [2, 2, 2], ls: [0, 1, 1], ms_combs: [0, 0, 0, 0, 1, -1], ctildes: [0.011014361749598096, 0.00052968136188012369, -0.022028723499196188, -0.0010593627237602472]}
    - {mu0: 0, rank: 3, ndensity: 2, num_ms_combs: 3, mus: [0, 0, 0], ns: [2, 2, 2], ls: [0, 2, 2], ms_combs: [0, 0, 0, 0, 1, -1, 0, 2, -2], ctildes: [0.00021505728758174992, -0.00031951207641011379, -0.00043011457516349983, 0.00063902415282022758, 0.00043011457516349999, -0.00063902415282022791]}
    - {mu0: 0, rank: 3, ndensity: 2, num_ms_combs: 4, mus: [0, 0, 0], ns: [2, 2, 2], ls: [1, 1, 2], ms_combs: [-1, 1, 0, 0, 0, 0, 0, 1, -1, 1, 1, -2], ctildes: [-0.0099268884769097235, -0.00020534145859928447, -0.0099268884769097218, -0.00020534145859928444, 0.034387750406155333, 0.00071132367838852367, -0.0243158115019429, -0.00050298179660708401]}
    - {mu0: 0, rank: 3, ndensity: 2, num_ms_combs: 5, mus: [0, 0, 0], ns: [2, 2, 2], ls: [2, 2, 2], ms_combs: [-2, 0, 2, -2, 1, 1, -1, -1, 2, -1, 0, 1, 0, 0, 0], ctildes: [0.055645498344475457, 0.00017520273251788113, -0.04543435914228363, -0.00014305243207004482, -0.022717179571141811, -7.1526216035022397e-05, 0.027822749172237714, 8.7601366258940525e-05, -0.0092742497240792393, -2.9200455419646847e-05]}
    - {mu0: 0, rank: 4, ndensity: 2, num_ms_combs: 1, mus: [0, 0, 0, 0], ns: [1, 1, 1, 1], ls: [0, 0, 0, 0], ms_combs: [0, 0, 0, 0], ctildes: [7.875321623415263e-07, -6.8974483339044644e-05]}
    - {mu0: 0, rank: 4, ndensity: 2, num_ms_combs: 2, mus: [0, 0, 0, 0], ns: [1, 1, 1, 1], ls: [0, 0, 1, 1], ms_combs: [0, 0, 0, 0, 0, 0, 1, -1], ctildes: [0.00061032237725066945, 0.0025328744737114321, -0.0012206447545013387, -0.0050657489474228634]}
    - {mu0: 0, rank: 4, ndensity: 2, num_ms_combs: 3, mus: [0, 0, 0, 0], ns: [1, 1, 1, 1], ls: [1, 1, 1, 1], ms_combs: [-1, -1, 1, 1, -1, 0, 0, 1, 0, 0, 0, 0], ctildes: [-3.5299497324148364e-05, -4.4715710008566305e-05, 3.529949732414837e-05, 4.4715710008566312e-05, -8.824874331037096e-06, -1.1178927502141581e-05]}
    - {mu0: 0, rank: 4, ndensity: 2, num_ms_combs: 1, mus: [0, 0, 0, 0], ns: [1, 1, 1, 2], ls: [0, 0, 0, 0], ms_combs: [0, 0, 0, 0], ctildes: [-0.00019544169335630556, 7.0710277477899523e-05]}
    - {mu0: 0, rank: 4, ndensity: 2, num_ms_combs: 2, mus: [0, 0, 0, 0], ns: [1, 1, 1, 2], ls: [0, 0, 1, 1], ms_combs: [0, 0, 0, 0, 0, 0, 1, -1], ctildes: [0.00038057922216271474, -0.0034939300022321543, -0.00076115844432542927, 0.0069878600044643068]}
    - {mu0: 0, rank: 4, ndensity: 2, num_ms_combs: 2, mus: [0, 0, 0, 0], ns: [1, 1, 1, 2], ls: [0, 1, 1, 0], ms_combs: [0, 0, 0, 0, 0, 1, -1, 0], ctildes: [0.00059821715790917061, -0.00014675753960302377, -0.001196434315818341, 0.00029351507920604748]}
    - {mu0: 0, rank: 4, ndensity: 2, num_ms_combs: 5, mus: [0, 0, 0, 0], ns: [1, 1, 1, 2], ls: [1, 1, 1, 1], ms_combs: [0, 0, 0, 0, 0, 0, 1, -1, 1, -1, -1, 1, 1, -1, 0, 0, 1, -1, 1, -1], ctildes: [-7.7105002463370136e-06, -1.1191974506342038e-05, 1.5421000492674024e-05, 2.2383949012684066e-05, -1.542100049267402e-05, -2.2383949012684063e-05, 1.5421000492674024e-05, 2.2383949012684066e-05, -1.542100049267402e-05, -2.2383949012684063e-05]}
    - {mu0: 0, rank: 4, ndensity: 2, num_ms_combs: 1, mus: [0, 0, 0, 0], ns: [1, 1, 2, 2], ls: [0, 0, 0, 0], ms_combs: [0, 0, 0, 0], ctildes: [-0.0018512232480135506, -0.0016495143846358838]}
    - {mu0: 0, rank: 4, ndensity: 2, num_ms_combs: 2, mus: [0, 0, 0, 0], ns: [1, 1, 2, 2], ls: [0, 0, 1, 1], ms_combs: [0, 0, 0, 0, 0, 0, 1, -1], ctildes: [-0.00011543888218865999, 0.00025934038685644395, 0.00023087776437731992, -0.0005186807737128878]}
    - {mu0: 0, rank: 4, ndensity: 2, num_ms_combs: 2, mus: [0, 0, 0, 0], ns: [1, 1, 2, 2], ls: [0, 1, 0, 1], ms_combs: [0, 0, 0, 0, 0, 1, 0, -1], ctildes: [0.00066318203542836674, 0.0005421004158953248, -0.0013263640708567333, -0.0010842008317906494]}
    - {mu0: 0, rank: 4, ndensity: 2, num_ms_combs: 2, mus: [0, 0, 0, 0], ns: [1, 1, 2, 2], ls: [1, 1, 0, 0], ms_combs: [0, 0, 0, 0, 1, -1, 0, 0], ctildes: [-0.00039530751572252888, -1.540803695205698e-05, 0.00079061503144505754, 3.0816073904113953e-05]}
    - {mu0: 0, rank: 4, ndensity: 2, num_ms_combs: 6, mus: [0, 0, 0, 0], ns: [1, 1, 2, 2], ls: [1, 1, 1, 1], ms_combs: [-1, 1, -1, 1, -1, 1, 0, 0, 0, 0, -1, 1, 0, 0, 0, 0, 0, 1, -1, 0, 1, 1, -1, -1], ctildes: [-3.7391203236002878e-05, -5.4600135287559888e-05, 8.6741097316332684e-06, 1.2480981700591997e-05, 8.6741097316332684e-06, 1.2480981700591997e-05, -1.4358546752184809e-05, -2.105957679348395e-05, 4.0085967545472703e-05, 5.9276343772751815e-05, -2.0042983772736355e-05, -2.9638171886375911e-05]}
    - {mu0: 0, rank: 4, ndensity: 2, num_ms_combs: 1, mus: [0, 0, 0, 0], ns: [1, 2, 2, 2], ls: [0, 0, 0, 0], ms_combs: [0, 0, 0, 0], ctildes: [-0.0051529074326789439, 0.0024477448676761631]}
    - {mu0: 0, rank: 4, ndensity: 2, num_ms_combs: 2, mus: [0, 0, 0, 0], ns: [1, 2, 2, 2], ls: [0, 0, 1, 1], ms_combs: [0, 0, 0, 0, 0, 0, 1, -1], ctildes: [-0.00055537215545218243, -0.00027302403529345633, 0.0011107443109043646, 0.00054604807058691255]}
    - {mu0: 0, rank: 4, ndensity: 2, num_ms_combs: 2, mus: [0, 0, 0, 0], ns: [1, 2, 2, 2], ls: [1, 0, 0, 1], ms_combs: [0, 0, 0, 0, 1, 0, 0, -1], ctildes: [-0.00014861978508937061, -5.9252122405285182e-05, 0.00029723957017874117, 0.00011850424481057035]}
    - {mu0: 0, rank: 4, ndensity: 2, num_ms_combs: 4, mus: [0, 0, 0, 0], ns: [1, 2, 2, 2], ls: [1, 1, 1, 1], ms_combs: [0, -1, 0, 1, 0, 0, 0, 0, 1, -1, -1, 1, 1, -1, 0, 0], ctildes: [-6.6757194541789943e-05, -6.6807102688824769e-05, 3.3378597270894978e-05, 3.3403551344412398e-05, 0.00013351438908357986, 0.00013361420537764954, -6.6757194541789943e-05, -6.6807102688824769e-05]}
    - {mu0: 0, rank: 4, ndensity: 2, num_ms_combs: 1, mus: [0, 0, 0, 0], ns: [2, 2, 2, 2], ls: [0, 0, 0, 0], ms_combs: [0, 0, 0, 0], ctildes: [-0.0017457715684085955, 0.00024182153524516915]}
    - {mu0: 0, rank: 4, ndensity: 2, num_ms_combs: 2, mus: [0, 0, 0, 0], ns: [2, 2, 2, 2], ls: [0, 0, 1, 1], ms_combs: [0, 0, 0, 0, 0, 0, 1, -1], ctildes: [-2.3385837614894319e-05, 9.0920296666135373e-05, 4.6771675229788624e-05, -0.00018184059333227072]}
    - {mu0: 0, rank: 4, ndensity: 2, num_ms_combs: 3, mus: [0, 0, 0, 0], ns: [2, 2, 2, 2], ls: [1, 1, 1, 1], ms_combs: [-1, -1, 1, 1, -1, 0, 0, 1, 0, 0, 0, 0], ctildes: [-0.00012747033868794658, -0.00013325422413288309, 0.00012747033868794661, 0.00013325422413288312, -3.1867584671986659e-05, -3.3313556033220793e-05]}
    - {mu0: 0, rank: 5, ndensity: 2, num_ms_combs: 1, mus: [0, 0, 0, 0, 0], ns: [1, 1, 1, 1, 1], ls: [0, 0, 0, 0, 0], ms_combs: [0, 0, 0, 0, 0], ctildes: [-7.5654011038112602e-08, -3.0149858134261648e-06]}
    - {mu0: 0, rank: 5, ndensity: 2, num_ms_combs: 2, mus: [0, 0, 0, 0, 0], ns: [1, 1, 1, 1, 1], ls: [0, 0, 0, 1, 1], ms_combs: [0, 0, 0, 0, 0, 0, 0, 0, 1, -1], ctildes: [-1.9626323405146262e-05, -3.8129840170900334e-05, 3.9252646810292517e-05, 7.6259680341800654e-05]}
    - {mu0: 0, rank: 5, ndensity: 2, num_ms_combs: 3, mus: [0, 0, 0, 0, 0], ns: [1, 1, 1, 1, 1], ls: [0, 1, 1, 1, 1], ms_combs: [0, -1, -1, 1, 1, 0, -1, 0, 0, 1, 0, 0, 0, 0, 0], ctildes: [0.00011003277361344009, 0.00013229804699585676, -0.00011003277361344012, -0.00013229804699585676, 2.750819340336004e-05, 3.3074511748964204e-05]}
